{
  "alpha": [
    0.00038303726970636946,
    0.00024400121499627397,
    0.0002314695465942485,
    0.00023537779555525413,
    0.0002671858066408839,
    0.0002350191717030961,
    0.23695050550318938,
    0.0002578301795747451,
    0.0003874464306358462,
    0.0003274979002742517,
    0.0003587712886464318,
    0.0003599394428689623,
    0.0004232862955476195,
    0.00028962919962607876,
    0.0000891878968093182,
    0.0004229665179927207,
    0.00030059042986608386,
    0.0004089091310286387,
    0.00029341539496005234,
    0.00022354572695517118,
    0.00033997660862731773,
    0.00028023266678820066,
    0.0004204551727290666,
    0.0003828962197470279,
    0.0004124464399738874,
    0.00023119055310122776,
    0.00032352944504301256,
    0.0003922418429963851,
    0.00038684530902215804,
    0.0003185932272097799,
    0.0002967813057115915,
    0.00027407054369420837,
    0.00034916603649705227,
    0.0004389175975355737,
    0.00017437853782949412,
    0.0004301383641082523,
    0.0003001585447575929,
    0.00017616357839660016,
    0.189855901412194,
    0.0002677570574497879,
    2.301673257295317e-6,
    0.00018498204047588755,
    0.0003489575670502663,
    0.00042419265794173716,
    0.07515382795693006,
    0.00043511422992107557,
    0.0003430530304757237,
    0.00018143530453398928,
    0.0002835136666658301,
    0.00020397714394910376,
    0.0003972759654471381,
    0.00020529232846377214,
    0.00019727134460438932
  ],
  "support_vectors": [
    [
      2.228311836266957,
      -1.7571784388988299
    ],
    [
      1.6984090891945827,
      -2.3802952489747398
    ],
    [
      1.5735788122787628,
      -2.352979430476233
    ],
    [
      1.585900182072391,
      -2.3374566622833925
    ],
    [
      1.6335616731099494,
      -2.172788669027567
    ],
    [
      1.556563443640409,
      -2.3103847593164404
    ],
    [
      2.322721346553776,
      -1.5934031745416841
    ],
    [
      1.6394408651942407,
      -2.2339547743554373
    ],
    [
      2.2349948980838152,
      -1.7316876268515973
    ],
    [
      2.001830891760118,
      -2.0264671726996433
    ],
    [
      2.0330743640876445,
      -1.8554599250772783
    ],
    [
      2.158686403273979,
      -1.8816743575176016
    ],
    [
      2.887820311244967,
      -1.3669936384073345
    ],
    [
      1.8509551235190216,
      -2.1845521590019015
    ],
    [
      0.991677327640283,
      -2.7576142987924794
    ],
    [
      2.8935668996655775,
      -1.366999181935631
    ],
    [
      1.7691690876627748,
      -2.0609666962147806
    ],
    [
      2.6155060643467123,
      -1.5730123065374677
    ],
    [
      1.8797193188046393,
      -2.177569323404986
    ],
    [
      1.6004691541690628,
      -2.439491850963059
    ],
    [
      2.0121514115514962,
      -1.9566804399048165
    ],
    [
      1.7636179834755972,
      -2.18691259213241
    ],
    [
      2.85766106168546,
      -1.4053013251091693
    ],
    [
      2.290211937969933,
      -1.7640857774360572
    ],
    [
      0.22280324265795626,
      0.36395286773267177
    ],
    [
      1.5114271340006524,
      -2.28981424864876
    ],
    [
      2.0045914249460752,
      -2.0517228572458017
    ],
    [
      2.4311743779192962,
      -1.7080828415264937
    ],
    [
      2.4453715222489083,
      -1.7432293556097886
    ],
    [
      2.0457831587211497,
      -2.0997755780798
    ],
    [
      1.877176387997956,
      -2.1546994471698686
    ],
    [
      1.7877915295487539,
      -2.243783974468926
    ],
    [
      2.2153011583217865,
      -1.960907737755308
    ],
    [
      2.8124504436119837,
      -1.2720201158720803
    ],
    [
      1.38085939978557,
      -2.5786686084494566
    ],
    [
      2.8370886785947893,
      -1.3328127376840042
    ],
    [
      1.8825927406971903,
      -2.1366362769163625
    ],
    [
      1.3787899694407688,
      -2.559105497166838
    ],
    [
      0.7880134725397383,
      0.793348420000977
    ],
    [
      1.7337516710293837,
      -2.245675142482417
    ],
    [
      0.5997918643923794,
      -3.2632311952006585
    ],
    [
      1.3770586626248003,
      -2.478576231635643
    ],
    [
      2.0989121822869996,
      -1.9320620010026774
    ],
    [
      2.8669662031211005,
      -1.3691580909555625
    ],
    [
      0.14147759116195835,
      0.26526485652702303
    ],
    [
      2.686745236428253,
      -1.359041107377784
    ],
    [
      2.07746664393533,
      -1.960953596837642
    ],
    [
      1.3395811718162105,
      -2.4538091449438246
    ],
    [
      1.7314302038801814,
      -2.143617224685064
    ],
    [
      1.533584649268545,
      -2.521659183022739
    ],
    [
      2.412767036090192,
      -1.676213953019394
    ],
    [
      1.4733581883010873,
      -2.438620441314961
    ],
    [
      1.4601092119993075,
      -2.487396409221957
    ]
  ],
  "support_labels": [
    -1.0,
    -1.0,
    -1.0,
    -1.0,
    -1.0,
    -1.0,
    -1.0,
    -1.0,
    -1.0,
    -1.0,
    -1.0,
    -1.0,
    -1.0,
    -1.0,
    -1.0,
    -1.0,
    -1.0,
    -1.0,
    -1.0,
    -1.0,
    -1.0,
    -1.0,
    -1.0,
    -1.0,
    1.0,
    -1.0,
    -1.0,
    -1.0,
    -1.0,
    -1.0,
    -1.0,
    -1.0,
    -1.0,
    -1.0,
    -1.0,
    -1.0,
    -1.0,
    -1.0,
    1.0,
    -1.0,
    -1.0,
    -1.0,
    -1.0,
    -1.0,
    1.0,
    -1.0,
    -1.0,
    -1.0,
    -1.0,
    -1.0,
    -1.0,
    -1.0,
    -1.0
  ],
  "bias": 0.9517333603706217,
  "kernel": {
    "Linear": []
  }
}